

#ifndef HOUSING_FNN_H
#define HOUSING_FNN_H


float INPUT_MEAN[] = {
3.87069684,
35.64056895,
-119.58051328,
28.61501285,
};

float INPUT_STD[] = {
1.89776665,
2.13611534,
2.00583627,
12.57678794,
};

float weight1[] = {
15.96169186,
15.46023750,
9.22623730,
21.77391243,
19.29785538,
0.01036665,
19.42822266,
14.87917042,
-19.96025467,
-20.12391853,
-21.79425430,
14.20253754,
-15.87888432,
0.18252838,
12.66844749,
-16.33793831,
4.38438511,
4.23640728,
4.64966679,
-28.95174217,
-11.43052578,
0.20910373,
-28.11672211,
2.57808423,
4.22453165,
6.55471516,
15.03072929,
-1.74982214,
14.24166775,
0.03475905,
13.98530293,
-21.19790459,
};

float bias1[] = {
36.42977142,
36.13945389,
34.97528839,
36.33639526,
35.18228149,
-0.51785678,
35.71024323,
38.12349319,
};

float weight2[] = {
0.35415536,
23.54485512,
0.24770145,
0.62604219,
-0.38607368,
23.78375626,
-0.31900397,
-0.72972548,
-0.29474664,
25.06995964,
0.02676034,
-0.17010267,
-0.22636291,
27.32919884,
-0.26935202,
-0.48737848,
-0.25041032,
29.93962288,
-0.10173220,
-0.46610647,
0.39744928,
-0.20819314,
-0.09912781,
0.30841514,
0.09686884,
27.71163750,
-0.62737620,
-0.42361134,
-0.12908357,
27.06978989,
-0.01477764,
-0.20473750,
};

float bias2[] = {
-0.07853238,
31.96750641,
-0.28391826,
-0.04294192,
};

float weight3[] = {
-1.00987291,
28.70016289,
-0.10163658,
-0.64456838,
};

float bias3[] = {
29.41570091,
};



#endif

